0.237177
0.448505
-0.262012
-0.096384
0.166698
-0.236259
-0.300239
-0.137960
0.454841
0.047405
0.083375
0.285479
0.404960
0.445685
-0.382419
0.436896
-0.136584
-0.414860
0.393083
-0.373577
0.202675
0.450863
-0.407566
0.156385
0.277893
0.085610
-0.364484
-0.231125
-0.234537
0.049383
-0.057059
-0.284544
-0.443740
0.094893
-0.225687
0.025731
-0.399020
0.280077
0.352548
-0.218080
0.216707
0.044868
0.457942
0.385631
-0.232865
-0.290351
0.251274
0.494206
-0.293754
0.013174
-0.137597
0.371116
-0.382059
0.217737
-0.328344
0.408563
0.016181
0.288476
-0.247021
0.169933
-0.364347
0.384611
0.147374
0.246299
-0.254537
-0.169076
0.393606
-0.182326
-0.107201
-0.231685
-0.158566
-0.067139
0.003258
-0.425547
-0.166437
0.239714
0.484733
-0.427286
0.235184
-0.264074
-0.052054
0.074288
-0.087546
0.141538
-0.315900
0.242657
0.188092
-0.131811
-0.074052
-0.229912
-0.092763
-0.349183
0.025841
-0.296825
-0.030754
-0.310513
-0.492751
-0.468032
0.276070
-0.354790
-0.126233
0.354296
0.241410
-0.322301
-0.286560
-0.405330
-0.037102
-0.440517
-0.160938
0.123565
-0.158317
-0.499531
-0.132592
-0.225419
0.239988
0.122192
0.264704
0.237247
-0.216194
-0.366436
-0.454502
0.431780
-0.324710
0.379284
-0.459854
0.093477
-0.089044
-0.197165
0.122424
-0.159260
0.064785
-0.367358
0.115672
-0.466125
0.430865
-0.124271
0.403151
-0.055374
-0.441012
0.121919
0.155294
0.237225
-0.088381
0.208507
-0.176210
-0.264735
0.028903
0.023452
-0.422527
-0.403385
0.473911
0.263060
-0.136523
0.190824
-0.210383
-0.374431
-0.441460
-0.201970
0.492962
-0.321037
-0.151961
-0.315359
0.444218
0.246616
0.208665
0.320977
-0.309880
-0.101517
0.274814
0.337360
0.476439
-0.148091
-0.007339
0.239520
-0.306471
0.110767
-0.219683
0.024120
0.375406
-0.437448
0.406055
-0.119403
-0.293314
-0.175344
0.341949
-0.006407
0.071718
0.186687
-0.095332
-0.205138
-0.273978
0.124632
0.464932
0.347044
0.223186
0.127274
-0.430150
-0.242552
0.331835
0.457793
0.346849
-0.154317
0.339959
-0.175628
-0.350208
0.033872
-0.063380
-0.380792
0.338676
-0.134997
-0.456896
-0.213847
0.230923
0.426771
0.235143
0.396929
-0.349863
-0.205631
0.291404
0.204161
0.279620
0.303878
0.072680
0.074833
0.446593
-0.067160
0.386383
-0.092570
-0.056398
-0.483006
0.326165
-0.331376
-0.198076
0.489027
0.174035
0.228488
-0.052071
0.401151
0.039369
0.189306
-0.129403
-0.458607
0.306020
-0.323974
0.012427
-0.416178
0.425188
0.487306
-0.406880
-0.492132
0.339498
0.345335
-0.261980
0.402769
0.304230
-0.331776
-0.237562
0.149477
0.120912
-0.211207
-0.037659
-0.315907
0.350254
-0.108525
0.165831
-0.142009
-0.418859
0.388142
-0.127723
0.063710
0.470991
-0.159243
-0.417556
0.469026
0.051066
-0.128049
-0.255478
0.430211
-0.295560
-0.385395
0.250200
0.249935
0.187740
0.162415
0.021374
-0.431190
0.367902
0.430529
-0.181091
-0.006023
-0.319827
0.288805
0.237968
0.256164
0.300085
-0.081119
-0.010242
0.499255
0.393732
-0.407553
0.082742
-0.100024
-0.351589
-0.281628
-0.175873
-0.394757
-0.211478
-0.269434
0.231898
0.084585
0.449012
-0.438659
0.459297
-0.470997
0.479419
0.146482
-0.490907
-0.263836
-0.475387
-0.478083
0.352096
-0.113007
0.048509
-0.282095
-0.144025
0.386538
-0.163130
-0.242117
0.319863
-0.226307
0.035609
0.403955
-0.238508
-0.434793
-0.061384
0.128719
0.476760
0.198902
0.033090
0.211853
-0.254939
0.254713
0.422907
-0.193547
0.267269
-0.293337
-0.179816
0.485114
-0.030978
-0.329276
0.358382
-0.065976
-0.320856
-0.131467
0.353979
-0.067869
0.176329
0.078800
0.168701
-0.432006
-0.285425
-0.242135
0.449225
0.217540
0.294009
0.098750
-0.296117
-0.273443
-0.133256
0.251447
-0.071447
-0.349149
0.435738
0.073550
-0.056545
-0.106285
0.409857
-0.367380
-0.407778
0.056465
0.030857
0.067144
0.481017
-0.473492
0.000413
-0.083783
0.293734
-0.229050
-0.333512
-0.394651
0.017684
0.178868
-0.424166
0.291404
-0.014169
0.157559
-0.469088
-0.395734
0.159999
-0.349908
-0.402982
0.041891
-0.443827
0.112898
-0.427710
0.033243
-0.443231
0.197016
-0.441667
0.074740
-0.076336
0.461209
-0.413613
-0.397421
0.133771
-0.350053
-0.395895
-0.218462
0.015970
-0.204701
-0.175315
-0.247088
0.061452
-0.018509
0.153328
-0.134721
-0.463067
-0.491175
-0.041020
0.384718
-0.330212
-0.276327
0.087793
-0.284559
0.196217
-0.382072
0.095018
-0.284025
0.216556
0.063394
0.417536
0.017203
0.255375
0.266380
-0.255593
0.307652
-0.070012
0.493106
-0.320545
0.264830
-0.416870
0.302367
0.044382
-0.143377
-0.316456
0.372149
-0.121589
-0.392485
0.120857
0.127709
0.094843
-0.164451
0.164505
0.227523
-0.458493
0.395002
0.479974
-0.023946
-0.382743
0.418039
0.234547
-0.484239
-0.203226
-0.154028
0.079772
-0.249457
0.492828
-0.457593
-0.419775
-0.280235
-0.289224
0.340245
-0.239697
-0.479165
0.388437
0.011151
0.043998
0.311734
-0.140579
-0.165495
-0.188040
0.144669
0.395699
0.462164
0.013092
-0.437273
-0.398664
-0.028064
0.487002
-0.278461
-0.040529
0.283237
-0.293829
-0.051426
0.270012
-0.209199
-0.363924
-0.181871
-0.328951
-0.245066
-0.171085
0.382635
0.474418
-0.478645
0.147695
-0.102118
-0.153167
-0.035115
0.288475
-0.184450
-0.331373
0.456592
-0.093896
-0.495699
0.310697
0.480028
0.076829
0.041852
-0.273624
-0.279072
0.310040
-0.294194
-0.132357
-0.049130
-0.184435
0.294593
-0.383165
-0.301181
0.340967
0.427917
-0.286527
-0.009249
0.253332
0.163721
-0.064022
0.107443
-0.050283
0.306766
-0.259215
0.071260
0.355316
-0.170240
0.073558
0.393954
-0.220038
-0.021803
0.297140
-0.385400
0.462903
-0.390574
0.248888
0.048603
0.275631
-0.134074
-0.386250
0.009058
0.026183
0.013138
-0.329109
-0.070557
-0.093112
0.185116
-0.055737
0.203882
-0.086895
-0.475313
0.286464
-0.171198
0.026806
0.427951
-0.201517
-0.217972
-0.254603
0.176016
0.077021
0.085840
-0.286387
0.395235
0.218644
-0.349085
0.463226
-0.499173
-0.263597
-0.219360
0.304145
0.458757
-0.175116
0.118456
0.050261
0.013447
0.284745
0.018809
-0.448564
-0.050983
-0.459728
0.306363
0.177625
-0.439753
-0.055846
0.430509
-0.413396
0.277668
-0.273672
0.266672
0.445408
0.066708
0.408657
-0.160585
-0.479745
0.137667
-0.094803
-0.440654
-0.236160
-0.085351
-0.380661
0.228566
0.067296
0.109118
0.295333
0.201798
0.050387
0.230193
-0.055392
0.323693
-0.121544
-0.438615
-0.125747
0.404392
0.027361
0.300300
-0.042126
0.060830
-0.481469
0.205701
0.402136
0.410331
0.415233
-0.109043
-0.454850
-0.015451
-0.306754
0.414037
-0.412714
-0.320274
0.477163
0.499551
0.217629
0.226018
0.227223
0.043636
0.035127
0.110378
0.072788
-0.140489
-0.072810
-0.003041
0.155890
-0.446703
-0.225606
0.060849
-0.449306
-0.250771
-0.001759
-0.098992
-0.084677
0.481816
-0.459732
-0.462715
0.223451
-0.459128
-0.436612
-0.031620
0.358690
-0.297182
0.077383
0.265968
0.393308
-0.122451
0.053065
0.247184
-0.025577
-0.349556
0.459947
0.489545
-0.382090
-0.303812
-0.063401
0.100648
-0.471759
0.213376
-0.433855
-0.348235
0.456952
-0.433920
0.424300
-0.134623
0.305120
-0.436921
-0.316944
-0.476210
0.343890
-0.267283
0.425031
-0.461992
0.048687
-0.015875
-0.187984
0.433710
0.345769
-0.427617
-0.459781
0.498118
-0.221728
-0.498033
0.487068
0.242564
-0.260045
0.109827
-0.499191
0.015551
0.236499
0.272774
0.240160
-0.133161
0.431193
-0.110981
0.055090
-0.093281
-0.349798
0.293862
0.401492
-0.240205
-0.143271
0.459439
-0.343843
-0.065789
0.416104
0.239271
0.088889
0.449422
-0.230511
0.187020
0.406404
0.320541
0.197100
0.375176
0.164070
0.238450
0.267341
-0.041138
-0.097294
-0.010447
0.293570
0.080795
-0.148221
0.481966
0.364136
-0.422320
0.462538
0.213696
0.364270
-0.178607
-0.033801
0.076970
0.387665
0.314885
0.286510
0.417260
-0.324158
0.101656
-0.221913
-0.068299
-0.110681
0.411474
0.403575
