-0.264308
0.133759
0.407866
-0.183803
0.088307
0.182982
-0.048051
0.213782
0.399667
0.124102
0.039781
-0.061255
0.077486
-0.144638
-0.108518
0.031857
-0.433381
-0.270975
0.042849
-0.068472
-0.167184
0.230549
0.193718
-0.333269
0.378629
-0.004576
0.241461
0.073151
0.497693
0.252403
0.206980
0.278572
-0.356872
-0.295455
0.214064
-0.006019
0.254635
-0.397084
0.036481
-0.121178
-0.043000
0.103958
0.002288
0.039861
-0.013643
-0.091045
0.271882
-0.487797
0.098443
0.065508
0.216179
0.099029
0.326799
0.459075
-0.157476
-0.272649
-0.076403
-0.212070
0.114950
0.411852
-0.360884
-0.399205
-0.243984
0.226096
0.092963
-0.397787
0.418751
0.290085
-0.476977
0.151367
0.271247
-0.125565
-0.431078
-0.422679
-0.395753
0.340440
0.410686
-0.377189
-0.264094
-0.334479
-0.313679
0.337491
-0.167854
-0.188556
-0.272604
0.107894
-0.120694
0.244250
-0.294420
0.287790
0.103722
-0.385733
-0.085495
0.363518
0.422960
-0.034300
-0.019163
0.418455
0.087068
-0.467153
0.412749
-0.251774
0.077632
-0.334487
-0.466121
-0.188527
0.280496
-0.222413
-0.279903
-0.287319
0.015174
0.475541
-0.041011
0.057305
0.360632
0.035070
-0.315537
-0.200404
-0.190063
-0.102682
-0.073211
0.299782
-0.150613
-0.031768
0.124976
-0.122274
0.336565
0.087454
-0.205955
0.214059
0.027648
0.034456
-0.018912
-0.002988
0.265356
-0.397019
-0.165637
-0.424497
0.253246
-0.227698
0.397430
0.026578
0.300750
0.478931
0.339789
0.366994
-0.092016
0.051723
-0.246111
-0.303887
0.005508
0.095049
-0.160729
0.069444
0.387460
0.056722
0.220813
0.305315
0.488729
0.103197
0.306850
0.462649
0.444410
-0.358918
-0.093608
-0.176010
-0.413075
0.133241
0.235905
0.348128
-0.377223
0.376444
0.142926
0.203946
0.410624
0.124761
-0.164134
0.325107
-0.136941
-0.465772
0.330655
-0.154808
0.273835
-0.137242
0.361068
-0.280489
0.474547
0.279759
-0.385762
0.065777
0.485367
-0.028935
-0.317893
-0.015222
0.012458
0.241687
0.198846
-0.097450
-0.281977
0.145054
-0.078296
-0.367724
0.400572
0.191222
0.183184
0.322584
0.029662
0.315054
-0.001909
-0.432825
-0.094752
-0.002535
0.220203
-0.393421
-0.359981
-0.236316
-0.233502
0.232185
-0.249269
0.133098
-0.005726
0.073294
0.338107
-0.095618
0.270911
-0.077964
-0.146129
0.458627
-0.315629
-0.409663
0.270986
-0.431750
0.337079
-0.062807
0.415514
0.221533
0.110405
0.449307
-0.103351
0.454087
-0.364999
-0.016245
-0.230089
0.039843
-0.337986
0.341530
0.346408
0.455236
-0.345328
0.123333
-0.025763
-0.155616
-0.148460
-0.087206
0.204926
0.098286
-0.040318
-0.424067
-0.422235
-0.497661
0.467699
-0.494746
-0.396906
-0.185403
0.307430
0.462099
0.290014
0.190560
0.021301
-0.413295
0.458171
0.258392
0.138949
0.259036
0.224103
0.137232
0.480577
0.403364
0.146665
0.193175
-0.448404
0.169917
-0.455835
0.088264
0.499353
0.055807
-0.026790
-0.187145
-0.379477
0.231024
-0.307401
-0.384718
-0.078237
0.295342
0.245065
-0.445117
-0.044856
0.022435
0.144547
0.150167
-0.135303
0.060677
-0.018938
0.384998
0.030265
-0.058968
-0.095515
0.072428
0.303977
0.038401
0.161655
0.237856
0.020168
-0.073183
0.376665
-0.082494
-0.038057
0.490341
-0.499762
-0.314527
-0.116036
0.432590
-0.429970
-0.490515
-0.447316
-0.411457
-0.462403
-0.020219
0.080757
-0.228313
-0.101713
-0.408301
-0.163630
0.022519
0.232272
-0.496654
-0.032689
-0.202997
0.352822
0.215553
0.089109
-0.222734
0.410339
-0.454899
-0.390532
-0.108370
-0.375562
0.456416
0.297989
-0.241017
0.088554
0.482331
0.384199
0.100798
0.403724
0.489185
0.243353
-0.435014
-0.098420
0.337826
-0.269431
0.330643
-0.379661
-0.453055
-0.115909
-0.463268
0.457270
0.326206
0.300770
0.129778
-0.283676
0.018260
0.097274
0.025032
-0.239767
0.015248
-0.008814
0.496336
0.397436
-0.036619
0.122937
0.247872
-0.465135
0.394921
0.360127
-0.042568
-0.108830
-0.227041
-0.023323
-0.455623
0.352194
-0.464578
-0.170949
0.431589
0.235213
-0.218609
-0.247351
-0.494918
0.195714
-0.451216
0.032603
0.462122
-0.390531
0.394480
0.491475
-0.438483
0.382906
0.016079
0.406514
0.071319
0.162112
0.043779
0.364493
0.233910
0.021260
0.368161
-0.254714
-0.342659
-0.339600
-0.165991
-0.261310
0.430090
-0.394166
0.198991
-0.310778
0.381637
0.461315
-0.034530
0.379071
-0.494855
0.319947
-0.271375
0.408701
-0.498880
0.056182
0.256636
-0.241312
-0.306867
-0.415902
-0.173566
0.059844
-0.384156
-0.123305
-0.490928
0.318679
-0.371551
-0.216657
-0.481572
-0.067759
0.340122
-0.107849
-0.320503
0.253699
0.288807
-0.326247
0.270854
0.447298
-0.333622
0.270984
0.208572
-0.026426
-0.442080
-0.425306
0.352415
0.490148
0.176052
-0.054042
0.147574
0.094396
-0.116388
-0.434374
0.321513
-0.128166
0.318786
-0.247491
-0.498971
-0.341062
-0.031461
0.444304
-0.397806
0.354210
0.027024
0.325921
-0.201626
0.339947
0.272823
-0.269946
-0.368665
0.368054
0.463237
-0.468698
0.231270
0.409525
0.357360
0.464520
0.260094
-0.057701
-0.188048
-0.179257
0.224423
0.245837
-0.299641
0.368123
0.214924
0.062750
-0.028468
0.043233
-0.340754
-0.296299
-0.408836
-0.346342
-0.046306
0.030354
-0.482138
0.296798
-0.205832
0.411836
0.467511
-0.314541
-0.037903
-0.498768
0.098327
0.107306
-0.252460
0.058413
-0.274460
-0.339175
0.151519
-0.174075
0.090264
-0.066753
0.484351
-0.350419
-0.035401
0.180457
-0.104455
0.474700
0.221888
0.156984
0.257059
0.452649
0.407819
0.224285
0.249162
-0.354078
-0.397208
0.070905
-0.481632
-0.017644
-0.289650
-0.153983
0.275805
0.441238
-0.427584
0.034242
0.382533
-0.417491
0.324514
-0.142199
-0.177905
0.477466
-0.299141
0.193194
0.321441
-0.458817
0.170385
0.451550
-0.375780
0.396221
0.094777
0.116605
0.112944
-0.201164
0.435202
0.447350
0.125305
0.283423
0.112258
-0.015602
0.160820
0.053001
0.097476
0.283833
-0.019096
-0.459246
-0.336001
-0.061393
0.224827
0.093279
0.150294
-0.020721
0.115742
-0.170983
-0.029817
0.244279
0.371833
-0.066345
-0.456338
-0.338327
-0.479139
0.153263
-0.167685
0.042479
-0.006723
-0.418474
-0.096739
-0.279439
-0.081600
-0.296422
0.340452
-0.325807
0.460781
-0.084093
0.346245
0.128765
0.235350
0.267724
0.004845
0.043301
0.013996
0.088058
-0.470606
-0.104485
0.106189
0.097724
0.292956
0.155009
0.492133
-0.216145
-0.140849
-0.116153
-0.034187
0.335998
-0.264208
0.276000
-0.094690
0.101855
0.132541
-0.127151
0.012615
-0.086969
-0.430867
-0.062835
-0.402607
-0.094979
0.092918
0.079415
0.162621
-0.404738
0.152123
-0.187852
-0.100954
0.357986
-0.490970
0.088413
0.098714
-0.103340
-0.262972
-0.265326
0.383710
-0.057976
-0.169111
-0.051222
0.169390
-0.354243
-0.050566
0.087884
0.448583
-0.247472
-0.140749
-0.120641
0.105538
-0.143268
0.033512
0.281790
0.205386
-0.053631
0.364216
0.058140
0.039906
-0.465812
0.486693
-0.377029
-0.268869
-0.448303
0.140003
-0.275299
-0.319990
-0.411444
-0.396691
0.084671
0.188208
-0.102621
-0.020103
0.185968
-0.482620
-0.176869
0.473098
0.080112
-0.245775
0.021730
-0.157347
0.032245
-0.374258
-0.367285
-0.356458
0.439820
0.232899
-0.337618
-0.311651
0.230829
-0.343836
-0.265439
0.463347
-0.244693
0.161632
0.478631
-0.125703
-0.482484
-0.255853
0.330877
0.364609
0.268519
-0.386890
0.295510
0.418678
0.100610
0.440875
0.326839
0.166972
0.077185
-0.151426
-0.340713
0.104954
-0.181888
0.366439
0.493337
0.252428
-0.409518
-0.211314
-0.390890
0.150512
0.265191
0.425675
-0.061828
0.401376
0.377891
-0.182804
0.368901
-0.124328
-0.203131
0.149075
-0.171619
0.130209
0.109832
0.063439
-0.119580
0.048500
0.096485
0.045687
-0.055581
-0.485333
0.087062
-0.331556
0.142576
0.259344
0.000445
0.042364
0.451479
0.347167
0.414237
0.313766
-0.391082
-0.351008
0.026624
-0.253930
-0.023305
-0.105635
0.049414
0.246876
0.215491
0.021234
0.322393
-0.069138
0.396714
